digraph Tree {
node [shape=box] ;
0 [label="domestic gross <= 18239416.0\nmse = 1020257.8106\nsamples = 1710\nvalue = 1649.7312"] ;
1 [label="domestic gross <= 5490327.0\nmse = 487048.1879\nsamples = 544\nvalue = 627.9404"] ;
0 -> 1 [labeldistance=2.5, labelangle=45, headlabel="True"] ;
2 [label="domestic gross <= 1003500.0\nmse = 109215.2854\nsamples = 308\nvalue = 183.365"] ;
1 -> 2 ;
3 [label="domestic gross <= 305205.0\nmse = 9091.4751\nsamples = 219\nvalue = 44.5076"] ;
2 -> 3 ;
4 [label="(...)"] ;
3 -> 4 ;
5 [label="(...)"] ;
3 -> 5 ;
6 [label="rating PG <= 0.75\nmse = 191395.1309\nsamples = 89\nvalue = 525.0477"] ;
2 -> 6 ;
7 [label="(...)"] ;
6 -> 7 ;
8 [label="(...)"] ;
6 -> 8 ;
9 [label="genre_drama <= 0.1833\nmse = 385563.6102\nsamples = 236\nvalue = 1208.149"] ;
1 -> 9 ;
10 [label="runtime <= 94.6667\nmse = 411255.5022\nsamples = 88\nvalue = 1566.6884"] ;
9 -> 10 ;
11 [label="(...)"] ;
10 -> 11 ;
12 [label="(...)"] ;
10 -> 12 ;
13 [label="genre_sports <= 0.75\nmse = 248403.8633\nsamples = 148\nvalue = 994.9635"] ;
9 -> 13 ;
14 [label="(...)"] ;
13 -> 14 ;
15 [label="(...)"] ;
13 -> 15 ;
16 [label="domestic gross <= 68725688.0\nmse = 554660.2019\nsamples = 1166\nvalue = 2126.4501"] ;
0 -> 16 [labeldistance=2.5, labelangle=-45, headlabel="False"] ;
17 [label="genre_drama <= 0.0742\nmse = 350892.1936\nsamples = 821\nvalue = 1868.7915"] ;
16 -> 17 ;
18 [label="domestic gross <= 26466598.0\nmse = 378769.4418\nsamples = 224\nvalue = 2304.2909"] ;
17 -> 18 ;
19 [label="(...)"] ;
18 -> 19 ;
20 [label="(...)"] ;
18 -> 20 ;
21 [label="domestic gross <= 42092756.0\nmse = 242569.6019\nsamples = 597\nvalue = 1705.388"] ;
17 -> 21 ;
22 [label="(...)"] ;
21 -> 22 ;
23 [label="(...)"] ;
21 -> 23 ;
24 [label="rating R <= 0.0294\nmse = 505628.7109\nsamples = 345\nvalue = 2739.6028"] ;
16 -> 24 ;
25 [label="movie counts <= 1.5\nmse = 362064.8864\nsamples = 109\nvalue = 3380.3583"] ;
24 -> 25 ;
26 [label="(...)"] ;
25 -> 26 ;
27 [label="(...)"] ;
25 -> 27 ;
28 [label="genre_drama <= 0.1056\nmse = 294727.3659\nsamples = 236\nvalue = 2443.6606"] ;
24 -> 28 ;
29 [label="(...)"] ;
28 -> 29 ;
30 [label="(...)"] ;
28 -> 30 ;
}